[{"weights": [[0.6936179869580891, -0.2389342203814818, -0.28850527716618046, 0.31796175381647784, -0.26541727675448135, -0.10476029384011257, 0.5251020179685079, 0.3208193922077065, -0.2096200629522078, -0.23678412362844897, 0.8422378939411973, 0.48284429847718674, 0.5679270886366398, 0.38185304966744715, 0.1626491034142217, -0.050528084626584015], [0.27802776797844886, 0.16820571270171972, 0.11661998878275094, 0.06624540670441438, 0.30005111723268335, 1.0220341307671241, 0.4064515226828105, 0.13004415718822773, 0.2553721251743725, 0.14661316764301002, 0.05354099562396539, 0.3784154593286265, -0.3024920621692709, -0.4334951264264934, -0.13717103817015366, -0.1737707115530318], [-0.16408504729894557, 0.3642756138521242, -0.07326903352917005, -0.15237856319637613, 0.3268718448589482, -0.036137115275894416, 0.40170592504801017, -0.13974519617872294, 0.22362079965152723, 0.06475605857574816, 0.708188037278849, 0.37721401198376425, -0.1894097668965089, 0.7032821922752303, 0.09259451155011197, 0.28753444747914614], [-0.17623343743272335, -0.2193384610561839, -0.29248962449098326, -0.04568679527818736, 0.5123937434817826, -0.45746162773992155, -0.2816019616157655, 0.08024802309805636, 0.49271555177386117, 0.045232202957651214, 0.0027053165870920028, 0.44963029988072434, -0.06948805877260646, 0.9922553349489068, 0.5297261595157251, 0.06689318783954394], [0.21015063421151745, 0.44329748486373477, 0.30801797115762725, 0.7429523093433308, 0.5366170345293385, 0.04878446529594789, -0.08767309155431936, 0.541610257501021, 0.32360836364363077, -0.3933874074241946, -0.14260490251022365, 0.18005321419513873, 0.20213597935776456, 0.2538012760932521, 0.45594239808670645, 0.008061383732730649], [0.5922079771609202, 0.5288231135853639, -0.36973370433593256, 0.22290642323208498, 0.47363187398753276, 0.08471041771247707, 0.21935828433714497, 0.05867351462269514, 0.5091874502013297, -0.4550746916776471, -0.0622824006576798, -0.004929625225598178, 0.9509221871601443, 0.319458032737818, -0.051416752072374484, 0.4217033649639673], [-0.4767441099038934, 0.7207996667938731, 0.18181259272469089, -0.6237985455018974, -0.02665593652483407, 0.2632296250051152, 0.4625267442992539, 0.366631084819819, -0.2333578012946857, 0.3437637876783935, 0.3105843044827858, 0.5980433298447668, -0.4540008908519417, 0.1325985814566766, 0.4359980751408661, -0.2334175821048767], [0.3767424425977254, -0.31086125764300987, -0.2907258868664019, 0.6661682178936509, 0.013757791617027046, -0.023189524352004123, 0.06532921898082986, -0.2492429992497043, 0.20456134191559847, 0.42694399585066933, 0.39860291407083814, 0.08329163489178458, 0.8599397084592582, 0.5278690968839475, 0.49397688746439594, 0.23038598306012864], [0.294510732192427, 0.4314108664578033, 0.5440167267291788, 0.8136211070209809, -0.175733573193095, 0.40960541123200445, 0.6351039483838307, 0.15060166168780442, -0.1524013089273489, -0.2416749015499539, 0.36753874938195663, 0.3805893484191136, 0.44369610511222546, -0.5544926177583416, -0.05784934690461587, 0.2732590806791878], [0.5169102630848584, 0.4228244501116111, -0.08436220572174921, -0.14491594688759898, 1.255728986882546, 0.8888265034760565, 0.24342912431192934, -0.2725389346987347, 0.805517141038548, 0.6700971725979611, -0.11115708774695014, -0.3635068883027585, -0.0982246822597322, 0.2155659936382781, 0.28237527642197613, 6.059501651684175e-05], [0.15093879156774784, 0.14975572864135492, 0.4545714492122403, -0.1348761502275826, -0.03410136900224013, 0.1128704294148451, 0.591096228311524, 0.08489174470459854, 0.47004490918252134, -0.04497579262784569, 0.40692794871214233, 0.1676549735492985, 0.47998736197603603, -0.022256587106099842, -0.08691613119177757, -0.38995308803870604], [-0.39517662367687156, 0.5103502434450043, 1.025903514527402, 0.23096638943239328, -0.028066080526174462, 0.3600962191481693, 0.5918592013445249, 0.38732755004252095, 0.68215401140289, 0.10310617626780082, -0.2015849417900419, -0.04982925930840434, -0.4282426744873441, 0.23837050146898703, -0.0942963682972234, 0.1003567224042696], [0.4097968321936891, 0.38249236795345526, 0.5578479423232742, 0.01995297277918167, 0.31145112065627495, -0.14407707074211284, 0.47624910265414583, 0.6119169703247599, 0.5569060252627261, -0.3075435394583476, 0.13478402826846306, -0.19905852124624304, 0.3619056349503361, -0.020636021245621854, 0.2399989499878606, -0.19067295610406493], [-0.6024859564782805, 0.7095059311224283, 0.7683366485620853, -0.05880303618010855, -0.16792868595956736, 0.7230524114886883, -0.15903220588289746, 0.5460165509414562, 0.10659743875338387, -0.14705673554295642, -0.21664849581459192, 0.48424130655148573, 0.3380510370196686, 0.13263295741576905, 0.06516151790166977, -0.5021183833597604], [-0.6722036926183415, -0.2493237561269152, 0.6299598701693557, -0.2066710051533331, 0.053774855683377865, 0.4496584618609589, 0.5958018947728257, -0.059819911777133854, 0.7431206620508036, 0.6527805134546255, 0.32388952095020096, -0.1771343210654959, -0.19222137715324375, 0.0156461653166514, 0.30255942989349066, -0.32227691914110246], [-0.03150861316629233, 0.56462224972083, 0.5156745523039205, 0.34094594721258564, 0.6639343365381861, 0.4114794165715868, 0.09821719328747995, -0.06849744894854375, 0.6213270404305701, 0.5645161155163907, -0.33581577032961263, -0.16433730417555928, 0.09974027926403344, 0.3183742505335364, 0.2654118083260919, -0.044077769675851926]], "biases": [0.6584123731160245, -0.043462916980334686, 0.4497812435908423, 0.6635881124705266, 0.7598893366503893, 0.6787070993475252, 0.9694312000609816, 0.7029259122978606, 0.1501188977837934, 0.5314625696329979, 0.6810124709536979, 0.22384837641907915, 0.006461333789973914, 0.12683646759201422, 0.964908195486318, 0.4309665064730382]}, {"weights": [[-0.01957560066673448, -0.3635641680644774, 0.019440178424512147, 0.46877576879342486, -0.12367824717241503, 0.3974904113376527, -0.2541643597495165, 0.21259205511357404, -0.401838779870393, -0.5162894118319551, 0.5099290312235425, 0.24988601878282976, -0.38461649712383444, 0.17504199849560736, 0.47992859786678377, -0.48549596365646325], [0.22401983207493462, -0.28586643278406143, 0.6333572621546856, 0.531749678850192, -0.2579485779781214, -0.3656100974779923, 0.6479084556729434, -0.2978872300068971, -0.30119960762425685, -0.36864638912490993, -0.02786678547631533, 0.24667329800968335, -0.19371572777770424, 0.4297817371564076, 0.5279597992541225, -0.11667074128440508], [0.0471589642616093, -0.16229621205288006, 0.07008108842763125, -0.32003207453540455, -0.1464073079861547, -0.24748405733578657, 0.025076353426982556, -0.4542742752682243, 0.15000241191001928, -0.25801972029474696, -0.01084223571294409, 0.7482341497009204, -0.24248404484713224, 0.3700096379833899, 0.24328569891973112, -0.3635483675299762], [-0.24895636987878902, -0.023638085284782888, -0.2133804748047882, 0.02824111623411987, -0.48576047646078246, -0.22540537936162713, -0.2652460483424191, 0.2794998977765698, -0.6092161350966041, 0.7202399208249433, -0.3119794634187062, -0.16043044870787893, 0.3644914230605127, -0.32806466541997786, 0.5775213795105886, 0.04425112132765835], [-0.5630455882588631, -0.2878513194015713, 0.1313097235262024, 0.046633601367883304, -0.4340397481788811, -0.07769606904240467, 0.05617621517793893, -0.07258202641665566, -0.748842142161526, 0.3071375950846912, -0.2995727806582542, -0.13594712570535308, -0.34682320179589443, 0.31649957868692913, 0.18058764714192468, 0.30623380315563403], [0.14972095650175613, 0.09098666585759123, -0.1476235300535876, 0.14393442167663853, -0.1262334179156497, 0.2551643174738328, 0.2884318217350151, -0.1120045348671336, 0.03911726123752839, -0.6300016558969883, 0.2991250615348783, -0.5439010753665842, -0.09757795346658314, -0.10714547695154404, -0.2629398730428928, -0.7250108923453118], [-1.1024447350315334, 0.43146836635292884, 0.0612677319377583, 0.3084283333932154, -0.0683364199878515, -0.16832976916814923, -0.5131183121729869, -0.7777189137743248, -0.6311389022556296, 0.7393769858624003, 0.03522830462357256, -0.5799291679963127, -0.21022381148821895, -0.1305972478635248, 0.5462964342560408, 0.3013513710624418], [-0.2893537297573796, 0.501626638457755, 0.03604330474587258, -0.33412238688987667, -0.39500539448876737, -0.5061851406832459, -0.011160212837735965, -0.29192369315950006, -0.06272448858408798, -0.02247248788484311, -0.032834810003913445, -0.3336403877865997, 0.20315185622467138, 0.5892321971173532, 0.17692732779843923, 0.3016260079978527], [-0.21819864923499596, 0.32313480598257627, -0.6079131984426672, 0.23388014936004, -0.04858664149771164, -0.2936629614321223, 0.2533105526837856, -0.8142176735588212, -0.4132091190302946, -0.3776338738798142, 0.09637207240943702, 0.5274850414705601, 0.24132681493113234, 0.8240582744111894, 0.17953445116300853, 0.051966823962368666], [0.08092354525322569, -0.12857577944390006, -0.05518270937096336, -0.014407265214261385, -0.23441644444246826, -0.0015077494216819462, 0.38495737594434587, -0.1765967163471987, -0.22027457279859453, 0.5426836393145287, 0.35281240080859605, -0.6189461062263532, -0.4169370505134017, -0.49973527265234097, -0.06925121241247244, 0.0605232058078835], [-0.5430073371012492, 0.014160764411398262, -0.5590057455379999, -0.6130256541446313, -0.5687496330776425, -0.45246390231686107, -0.2313516085069134, -0.286781393652734, 0.17012993297557266, 0.6544718504887007, 0.2663427829995093, 0.31815477997769404, -0.43657981709334914, 0.07006248232956364, 0.5657354754364105, 0.15293153545096147], [-0.19092480257607414, 0.34111509104439247, -0.04024282309096654, 0.28809476685846735, -0.01819391200323434, -0.0584994119993714, 0.37914710243662025, -0.3621085794417097, 0.2519266383998246, -0.7121438445991499, -0.4845444149493459, 0.03153691700469365, 0.01566389046882394, -0.2714553224479605, -0.043041251113914075, -0.4249384320593414], [-0.15185761521631397, -0.1516252857638107, -0.08533679238227189, -0.12910010248200207, -0.33785692071352663, -0.16375405665837925, 0.06962667893321928, -0.06734605299042153, 0.2602633852507265, 0.05854777069557231, -0.21170338093482857, 0.06494223105026548, -0.012118917943861862, 0.13845404897149735, -0.15114235655129293, 0.20502609654871867], [-0.20126752411093038, 0.5183520836042982, -0.027941935919410906, 0.27780873937959016, -0.1307775875543819, -0.4103628561381289, -0.005475397931271648, -0.07735036544165685, 0.2840450782674862, 0.39389910559634556, 0.021495449546130217, -0.17026387051701597, 0.4711876769886308, -0.08517270494838677, -0.1944685619305126, -0.6080067646991469], [-0.44380494274058163, 0.3319382182031756, -0.26814955120060746, -0.21598037977160792, 0.15288581582635438, -0.09293901771930503, 0.3058756036070322, 0.10793341420459548, 0.08673963421177096, 0.44683705319337974, 0.0581525149414013, 0.6475125448669212, 0.02704107018516195, 0.11134865076023126, 0.30154972853591416, 0.4039319928103348], [0.519577070142034, -0.5507257316620138, -0.2021652338660739, 0.7286946181817736, -0.21495394043965668, 0.05023428944893897, -0.3729439739181293, 0.40094744821323325, -0.5881451063416246, 0.6049802382664877, -0.356047608667469, 0.006886510961807597, 0.045969971764804385, -0.10232867957567503, -0.3124561179382745, -0.34600794674142854]], "biases": [0.5236092240659072, 0.5862018205312687, 0.8462412925880987, 0.7595725400781534, 0.12456105867395559, 0.49236053248466016, 0.5673576318611684, -0.0058541571450881616, 0.6024442791482552, 0.3820242037524229, 0.39670339133197074, 0.6285661619208045, 0.26886446758784427, 0.2582341007885783, 1.0255494686740174, 0.44272928746936263]}, {"weights": [[0.10105301887098056, -0.008536244353100514, -0.07777673345753498, 0.10084627727478467, 0.1690220050427655, 0.14235316242849377, -0.012824024638762192, 0.05699878842857466, -0.29034416629715754, 0.17661923449869843, -0.18215024475920835, 0.06431123806401907, 0.010190969832305491, 0.02087836476015835, 0.11141441698289142, 0.3810268637299433], [0.021234770113675073, 0.15573955944072246, -0.058510706539068695, -0.33685259415983426, 0.07949006004855856, -0.07784414800736504, 0.18586725175204347, -0.18552998952281105, -0.409771628883493, -0.23225379799518495, -0.1456041124744194, -0.2750618880356981, 0.011247202573915219, -0.07361203874543322, 0.35449991167618033, -0.07412078993330252], [-0.28878895561180673, 0.3116984973839053, -0.13518826278199403, -0.20127454268474693, -0.040465224706684816, -0.23450328058419487, -0.21933566871195395, 0.1229003517066524, -0.523424548020627, 0.1331129531527673, -0.4273192997444891, 0.13117524683640006, 0.024672207708203546, -0.2851658732758405, 0.526058359012468, -0.16579417641655353], [0.10583615617121545, 0.1740382128070575, -0.3955071120549575, -0.16084706394194703, -0.08644755894892858, 0.06218610393565629, -0.2363111298755082, -0.08359376824878564, -0.29214696702564935, 0.12761626855022376, -0.1358966424106675, -0.2728064341756932, 0.18384090517262, -0.11355824184886183, 0.21658460811837288, -0.24445228517324022]], "biases": [1.9746827790194372, 2.299264569152058, 1.603644499776677, 1.1329157915780776]}]