[{"weights": [[0.20772693591523755, 0.10149294396482898, -0.3320757486281281, -0.07839301918840437, -0.02100556769685913, 0.12696379690971174, -0.4033684137438109, -0.07499300591517892, -7.006956868972155, -0.3870290374405477, 0.3574612059165596, -0.006087031957196139, -7.918933579232532, -8.05779086127778, -0.04023234051139111, 0.22035556763615394], [0.02893452856121414, -0.03156830899375486, -0.0018972543362017129, -0.002157729266586272, 0.16157145822385935, 0.01916798873289667, 0.07044342620088213, -0.017665945601088973, 0.4606249458038087, -0.10746704748638536, 0.10249026558987037, 0.006522260001834333, 0.11255547988133416, -0.24828336308519497, -5.107837022292516, 5.303493058446549], [0.32297228106319886, -0.6902773364160341, -0.2731889402655112, 0.0012677348547681156, -0.8035081014375642, 0.37445518458224125, -0.056962239069536055, -0.25946834559155085, -0.6545328896196393, 3.8703419000454615, 0.05938366051054415, -0.26387844107849656, 0.6088836603704662, -1.7048709864200213, 0.26430936417730544, -0.09215213639417771], [-0.01968796032855973, 2.825017094034636, -0.0416004225759713, 0.01637889621444974, 0.0624551308939735, -2.0637113052942353, 0.032791488816105156, -0.007169367019290859, -0.037877607314379516, 0.07598036021243461, 0.009588511181830881, -0.021795399156971235, 0.03430535847072018, -0.03453235179611153, 0.0617848936127592, -0.09375116969487415], [-6.019563399094586, -0.11474255441128549, 0.2574119908320272, 0.06375940098228366, 5.615139829011304, -0.1313228989747278, -0.1489030731089977, -0.11361710909024929, -3.9500764129208776, 0.049671004593437054, 0.12493158418702212, -0.05015371589340452, 1.0891897493638365, -0.8737695610541458, -0.03723712872903812, -0.21775883853492656], [-0.03412054024985805, -0.00244872187367024, -0.02111168403898738, 0.04201582670738019, -0.01095503314658863, 0.007600028989908312, 0.03091738285196992, -0.03387114566638897, -0.14486163161645307, 0.05601731418301483, 0.03511794217125114, 0.03847700177003099, -0.1133810907736588, -0.019023794464599533, 3.6275932065498764, -4.754813286386329], [-10.895944623919938, -1.5294438187141388, 0.37156260230016475, 0.39710810203020364, -2.829304698486582, 0.7768201162526515, 0.0072736298544533486, 0.09911345294668614, 0.334055587819294, -0.3237388894785542, -0.10672063497859947, -0.02845619585541665, 0.351698961046107, 0.8982496215208903, -0.04275937612566539, -0.0820139016479875], [0.5087226766333873, -0.09430951013514714, -0.1042297976020663, -0.008668790074659417, 0.23038548896928415, 0.01065175107244015, -0.2125027692551626, 0.19711461285861928, -0.03163632726651098, -4.858501737103434, 0.3662324874434463, 0.05465600069417237, 0.3082878427184636, 5.901070484607901, 0.4615768669512826, 0.19463034809398522], [0.6548770175263626, -0.22017726903249826, 0.7896138110401305, 0.02596262373201765, -0.3665292447067558, -0.8129196715540394, -4.1025118199420305, 0.8876525094345068, 0.2945072864980669, -0.02733014434412441, 0.558154083628272, 0.31637948756804635, -0.22231592317744456, -0.9906159473163771, 0.5561017727889797, 0.028078328629575492], [-0.20815642674218346, 6.5545329307236795, 0.008132469826514449, -0.10697723437580699, -0.15727039682594543, -6.291705730767367, 0.10490260141890397, 0.005337512250735891, 0.08296637794594554, -0.07594254603986995, 0.03974779007745623, 0.0020368023974691547, 0.4105043268035936, -0.11145734519176481, -0.0001503555286968803, 0.06518310839798687], [0.08227364823583963, 0.08966070163300652, -0.8657680383271961, -10.160727953959151, -0.005331592843896189, 0.20925201369218324, 0.2692501356360535, -2.449568234987862, -0.028960875889757043, -0.10079338843060807, 0.12072937138771841, 0.1159888673668872, -0.2714696652246283, 0.5901227489222214, 0.2366115267617728, 0.2605937807076813], [-0.07296924664785852, -0.4274922866014634, 0.5306872291623244, 0.33138761688974594, -1.678729419103656, -1.1458529309625807, 0.3866959181394832, 0.36786406406867905, -1.5015745410442016, -0.44868379080537285, -0.4294586917479527, 1.003049763047056, -0.4471422596586609, 4.5765056803879345, -8.303186869968405, -1.027304785369721], [1.8709604600020011, 0.19483617360156932, 0.21849027913794727, -0.13697631968752924, -2.6625636598085314, 2.248686214664837, 1.2446741375461645, 0.26880912995778183, -3.5558356430869167, -4.132048983787443, 2.5852945814609667, 0.5328596547582422, 0.7571304824012995, -4.290629987023515, -0.09286069852163045, 0.24803130659640799], [0.07691430544001997, -0.364589832095321, -5.035328456401103, 0.6093084891559969, -1.3913055658700644, -1.8165262762707006, 1.6945781021013022, -0.12074895304231295, 0.057934051865210376, -0.6855756313366251, 0.6993758214353013, 0.2594351186442931, -1.711750890799799, -0.9189848044696477, 0.5875894307089689, 0.16510956071594865], [0.10836721052540196, 0.22156288221747944, 0.19115874115313192, -0.06598567916668781, -0.7111628301397402, 0.42567593151548094, -0.014527770749776006, -0.32357605146781787, 0.7562264526106817, -1.2038559167913316, -4.68096890543626, 0.595146519170431, -0.1466978324253654, -0.881916950648404, 0.8600061159294048, -0.5080293959309903], [0.10346956515786844, 0.02313431573880621, 0.02376797168289368, 0.015538892657426301, -0.22427944039308156, 0.006055139133410419, -0.06250271015098531, 0.019702017649178005, 0.23272260171692927, 0.10295015048245941, 0.37590429933900205, -4.659608064802974, -0.002658807589901447, -0.28136144855802325, -0.7391983285756942, -0.7850046106670874]], "biases": [7.208813863319345, -2.3943880684300867, -3.098230911045684, -0.09072076889730911, 1.2834644322795679, 4.663361687895307, 10.862752228759598, -8.9824958049923, 4.589207711068754, -2.073872322354508, 11.440118239435968, 6.4644314501197035, -5.772227798476986, 7.316316887436285, 10.11612306521425, 10.338441140400088]}, {"weights": [[1.133507241834752, -0.29829313603269525, -0.7362226511250617, 0.7253200325651461, -0.31227025357858584, -0.06579938456443106, -0.05309639027511856, -1.056402410154411, -0.6654147692548643, -0.6102150649446677, -0.5234282245851402, -0.6467267148979906, -0.5168594448578153, -0.6053886248038727, -1.227914389419918, -0.8986563683399963], [-0.7065447114305112, -0.6608404996946718, -1.8657307672573358, -0.47469735647706207, -1.5818756972175079, -1.0532669767142706, -1.8634209805766508, -0.8703028312876081, -1.3589280099485617, -0.6974681201153726, -0.35929173837625006, -0.7909348503976515, -0.19248287363156885, -1.246356952269055, -0.9501631114206077, -1.4949824411551873], [-0.5330310360901798, 0.28586113960250636, -0.5104118882998926, 11.128414191832459, -0.4005818155909284, -0.22088965550706857, 0.0522449218468113, 0.07998954798416105, -0.08126761493085145, -19.983020849246202, 0.16057367906968384, -0.12709717673482215, 0.0024737764330428416, -0.06069826005720662, 0.02819907668704962, 0.031108253372723674], [1.996905974350038, 0.09484037797260954, -21.182448182196044, 0.0532374607830107, -0.6245509993492547, -0.2546709345715518, 0.09836847935250098, -0.937959452421596, -0.44901678907663506, -0.19113780561321203, -1.480646256483419, 0.4437323447801197, 0.2218864063601323, -0.5269437621020433, 0.14699946466128183, -0.06358854531001239], [-0.4603400212681158, -0.3903171229820246, -0.5825996883211465, -1.7627493573061885, 0.4087578958981635, -0.6064504389064473, 1.3367575087761179, -2.2354869915743176, -1.4683360624334083, 1.0466673984352302, -3.4627468661246805, -0.5562716934675341, -1.3368103384007932, -0.2961305340139651, -3.6824202319902506, -1.0830512220218669], [0.143157430125871, 0.20675012867940198, 0.3780753351219846, -1.72174593361659, 0.5098226658596431, 0.18596405961472812, 0.22382413322535846, 0.28077129650432714, 0.8659229237758659, 0.8757617291339171, 0.34809627426744755, 0.378365843422503, 0.1650853535401621, 0.8061142160917132, 0.7112294969287043, 0.8045891963559639], [-1.915387300982466, -3.2693799551757277, -0.2984387593942122, 0.20651968724422903, -0.2707773658131143, 0.07858818146940041, -0.8998834112720401, -0.37521517277942856, -0.3786886239133893, -0.21203440850761898, -1.5276086895115886, 0.1293495324831022, -0.5844886885084838, -1.0632110478342873, -0.3477667316730846, 1.4928977295507486], [0.20416845692342037, -7.427870931279034, 0.2831181896908536, -0.11868364726013261, 0.19168663717300805, -6.500227926532451, 0.13257147604263184, 0.21411695666679179, 0.17499128300181455, 0.019428276951613258, 0.2027599745759224, -0.32644925857949303, 0.010707539132875827, 0.2374463227749912, 0.14212454773471467, 0.12128775164809666], [-2.1934498518269936, -0.08351021834951933, -0.5840210630335648, -1.1269635899467636, -0.3667885200436444, -0.126039390506183, 1.0382745640556275, -0.6949495104258725, -0.5467685680821381, 0.007285444710185954, -0.10949912897311759, -0.39538437059961373, -0.5220125464024795, -0.00276106612752067, -0.750974130966224, -0.5532879841557539], [-3.166806793229437, 0.17657067889993033, 0.4873340722868928, 1.150443621573162, 0.5213133071324868, -0.08024825400911574, 0.23496580539487794, -1.2053273257569663, 0.28864912825395495, -0.49902757604378717, -0.1492514930940905, 0.9129135458751393, 0.8782364539185618, 0.35943853289590244, 0.7569820388813147, 0.31424686772489113], [1.493421665565941, -0.04315627040256215, -1.5164509078963395, -1.5016428229485455, -4.9961824023823045, -1.3151519218483019, 0.775437822346959, -1.4819618178004486, -0.24384504790236466, 0.09228509515839975, -1.1731013022278711, 0.2179140747924344, -14.63685222566902, 0.22196794317362345, 0.2272260183884822, -9.746775985664938], [-0.49132598227087393, -0.5030323565975722, -0.8223881290983617, -3.5345497095588714, -0.8712110229197081, -1.1591541185148782, -1.9140361810694364, -2.251731742465892, -0.9550717603560008, 0.32257118620837766, -0.8886463527017728, -0.28569754793294255, -1.2700062393047133, -0.8719048343114615, -2.8635153337908643, -1.2160980357864761], [-0.6462990668528092, 0.07626265888629341, -0.5449638179475325, 0.21543652518788386, -0.7107667444499065, 0.11624746079764432, -1.812383972099219, -0.2579003482124103, -0.22869942133463703, -0.2097178165767416, -2.3470062680071093, -0.13891852426876036, -0.6408223811894274, -0.28104278697436713, -0.516342662361859, -0.6724869435054712], [0.19402001374989386, 0.1668137300806157, -1.4329053754184897, 1.071076662669383, -2.4064122483019417, 0.9107113775165208, -1.9023664992844531, -1.580962244683767, -1.1094353775747754, -0.5742134771346638, -0.7127612972544008, -1.4306579203476408, -3.5298847373271647, -1.961296343340744, -2.9760784845062065, -2.162450066408292], [-1.573076019197307, -3.410958276061471, 0.1528781344503742, 0.025967216948994724, 0.3692936832722569, -2.9843446213072258, -0.04262710945963477, -0.21638249859619807, 0.0970449341606817, -0.010673659366152563, -6.12811423848618, 0.036234280226926444, 0.39783113232287115, 0.12204608510566627, 0.20889683270050582, 0.007253758006080344], [-1.3509718757652762, -0.10181679463391966, -0.4446555326109674, -0.2558943230011146, -0.2549225295567004, 0.050729158014475334, -0.7395328354899552, -0.8695779175211862, -0.6238714713661253, -0.10337717653362365, 1.1815785019317109, -0.16804079199619001, -0.5910781525286335, -0.36278051445421305, -0.8501314152358891, -0.07187861873082774]], "biases": [13.820159806723671, 1.9696599953060971, -10.988701791623418, -7.50625663172344, -3.1335132868764024, -14.988435109767252, -2.5320315960661843, 11.58940731831298, 2.2005142040457044, -19.178125559570965, -5.1950678660408505, 6.916219759213054, 10.948400166851016, 0.3941813658795035, 8.19232396799928, 1.327436611617081]}, {"weights": [[0.5482618799557942, 0.48518510919715524, 1.8425833141438381, 0.29594106991416796, 0.23380775802079992, -0.3355476059410048, 0.2135896918679152, 0.36477560005773507, -0.6682709243044771, -0.22406213952970824, 0.14650785135931987, 0.4509638383673308, 0.3955687195431235, 0.37909096709670304, 0.012230348951231188, -0.21809376919886816], [0.38869163836050236, 0.06112031989907131, 0.8062710195027643, 0.29608546033967575, 0.33867221156023, -0.33044096504558274, -0.6970332003111791, 1.343125055844553, 0.23916217290131359, -0.3256010374313341, -0.03983770863247551, 0.4447202744638646, 0.39333549694451203, 0.07692953631122186, 0.38313403054558093, -0.2568944603906153], [0.11268134268464128, -0.1332972564919771, 0.612901066505628, -0.4261168707917433, 0.08019074478381334, -0.15989462487194145, -0.07347419310486782, 0.49565925182848364, 0.4939894121278945, 0.031782600620247424, 0.10288192171390843, 0.02516940872928158, -0.1908974891472031, -0.008404827541173712, -0.2978135052913229, 0.36033872138742423], [0.11855515275849984, -0.10223456225983185, 0.8290740935808821, -0.15084690104888093, -0.04660467740627917, -0.2665658438553124, 0.5025882241749124, 0.5658792832709141, -0.06123040527783784, 0.02696026213486317, 0.0005143793832023836, -0.03126549290883897, 0.0947653756870516, -0.20408435489681012, 0.2866750608955438, 0.46565827241657015]], "biases": [9.431687511197289, 9.492474788915732, 6.38879844351245, 6.159824952721234]}]